{"height": 320, "width": 320, "planes": 9, "samples": 49, "format": "jpg", "quality": 95, "type": "neural", "colorspace": "bgr", "max": [15.292335510253906, 25.813779830932617, 11.35841178894043, 11.033440589904785, 8.933709144592285, 34.710426330566406, 7.971174716949463, 13.490532875061035, 6.7840118408203125], "min": [-12.090080261230469, -20.177507400512695, -13.318672180175781, -26.062685012817383, -27.96586799621582, -11.328465461730957, -13.889098167419434, -10.48062801361084, -10.968555450439453], "weights": [[-0.052919, 0.202117, -0.026169, -0.047807, -0.08369, -0.156265, 0.027007, -0.035239, 0.009607, -5.209244, 2.058133, 0.0, -0.020075, 0.126383, 0.032456, 0.309909, 0.075936, 0.009863, -0.024572, 0.083254, -0.091154, 5.983968, 4.756927, 0.0, 0.013443, 0.050008, -0.11747, 0.007786, 0.015247, -0.010159, 0.001295, -0.026076, 0.023991, 5.237717, -4.731775, 0.0, 0.125578, 0.015943, -0.04246, 0.079401, 0.082107, -0.024021, -0.04664, 0.097774, -0.085839, -2.469343, -7.03299, 0.0, 0.209884, -0.042832, -0.035988, 0.084067, 0.047712, 0.39049, 0.085399, -0.216595, 0.051884, 5.348217, 3.798365, 0.0, 0.016648, 0.187247, -0.048889, -0.282208, -0.062191, 0.015619, 0.019099, -0.0993, 0.061465, -7.393016, 0.704949, 0.0, -0.060866, -0.042203, -0.040586, 0.023928, 0.053861, -0.002297, -0.017817, -0.080625, -0.048397, 5.272239, 3.15209, 0.0, -0.007624, -0.277144, -0.017888, 0.115593, -0.087743, -0.120858, -0.006175, 0.036258, -0.047899, 3.774726, -6.153231, 0.0, 0.060976, 0.129485, -0.036162, 0.263807, 0.187339, -0.496563, -0.082633, 0.07127, -0.135885, -0.391861, 0.647622, 0.0, 0.03331, -0.058578, -0.028607, -0.085394, 0.29565, 0.06694, -0.101829, -0.075466, -0.026376, -1.069036, 0.114313, 0.0, 0.075364, -0.278637, 0.019762, -0.183169, -0.155555, -0.19788, -0.010881, 0.042158, -0.096045, -4.064117, -9.010637, 0.0, -0.035856, -0.023266, 0.030665, -0.047335, 0.018785, -0.017114, 0.014245, -0.064976, -0.016806, 5.623877, 5.72576, 0.0, 0.110111, 0.014033, -0.032845, 0.009314, 0.052678, -0.003521, 0.016191, -0.063961, 0.100701, -4.586014, -2.87076, 0.0, -0.033399, -0.069728, 0.007721, 0.135586, -0.220136, -0.254494, -0.476122, -0.13907, 0.219515, -0.118179, -2.675243, 0.0, 0.015008, 0.01879, 0.087496, -0.076529, 0.172206, 0.069531, 0.876423, 0.167419, -0.023211, -0.140384, -0.056631, 0.0, 0.034707, -0.10805, 0.148244, 0.015091, 0.017033, -0.032093, -0.064241, -0.033076, 0.032542, -6.048677, 5.797104, 0.0, 0.046688, -0.106157, 0.019575, 0.080803, -0.133633, -0.20434, 0.321442, 0.042949, 0.116431, 1.505746, -3.668356, 0.0, -0.075228, 0.1097, 0.001701, 0.285746, 0.019081, -0.261912, 0.326824, -0.155026, 0.314433, 6.159989, 2.276659, 0.0, -0.093994, -0.091218, 0.026776, 0.051315, -0.156737, 0.096878, -0.504255, 0.092583, 0.018107, 0.615723, 0.721769, 0.0, 0.03468, 0.261996, 0.009343, 0.072824, -0.036158, -0.075626, -0.038814, 0.099922, -0.071259, -2.633697, 5.486373, 0.0], [-0.588947, -0.596847, 0.107759, 0.125471, -0.537565, -0.493735, -0.120025, -1.03765, 0.221713, -0.217203, -0.44456, 0.278963, 0.206712, -0.652798, -0.379093, 0.03186, 0.184937, 0.050928, -0.11897, -0.452055, -0.135348, -0.370108, -0.049406, -0.08129, -0.672137, -0.048017, -0.656265, -0.389153, 0.009316, -0.432493, 0.049687, 0.479621, 0.490223, 0.276344, -0.122497, 0.103913, 0.24177, -0.446586, -0.423739, 0.024853, -0.00461, -0.221744, 0.939967, 0.407016, -0.081065, -0.213986, 0.618392, 0.355558, -0.181357, 0.033158, -0.183035, 0.739469, 0.625973, 0.146407, -0.27558, 0.704964, -0.580502, -0.026501, -0.203193, 0.493569, -0.016144, -0.010461, 0.003001, 0.001612, 0.018181, -0.012034, -0.040405, -0.042722, -0.054947, -0.059637, 0.00316, 0.050732, 0.06478, 0.005205, -0.040842, -0.007915, 0.010511, -0.055424, 0.002087, -0.032404, -0.026242, -0.353269, 1.276524, 1.006384, -0.056953, -0.463196, 0.868295, -0.265298, -0.257941, 0.231621, -0.110394, 1.208571, 1.735705, -0.292595, -0.158256, 1.402161, 0.173474, 0.082016, -0.736533, 0.210298, 0.002419, -0.433564, -0.571794, -0.071784, -0.149195, -0.522285, -0.093915, -0.65736, -0.666801, 0.224437, -0.432445, -0.717956, -0.369734, 0.015937, -0.131317, -0.122101, -0.036855, -0.556347, -0.502227, -0.344513, 0.023324, 0.074139, -0.060473, -0.024997, -0.045475, -0.033794, -0.017994, -0.047543, 0.023044, 0.01808, 0.000914, -0.023529, -0.016486, 0.037815, 0.090741, 0.004248, 0.052686, -0.039326, 0.019361, 0.019903, 0.224459, 0.066357, 1.249885, 0.941453, -0.01579, -0.004485, 0.790829, 0.32922, -0.253149, 0.13571, 0.118787, 1.140916, 1.196025, -0.110329, -0.112667, 1.089212, -0.406282, -0.231197, -0.090612, -0.007826, -0.685074, -0.651704, 0.116901, 0.043014, -0.455883, -0.455992, -0.156586, -1.159977, 0.341978, -0.340635, -0.530839, 0.231917, 0.200295, 0.190804, 0.007076, 0.037989, 0.1217, 0.007694, -0.1081, -0.487276, -0.316204, -0.292207, 0.238109, 0.226316, -0.059731, 0.011954, -0.128952, -0.165504, 0.021245, -0.03873, -0.243895, 0.359178, 0.095388, -0.089009, 0.183256, -0.022779, -0.210639, 0.059904, 0.02397, -0.118004, -0.085171, -0.074481, -0.104648, -0.022597, -0.012775, -0.039718, -0.089004, -0.108308, -0.03623, -0.038721, -0.085976, -0.068293, -0.038981, -0.073212, -0.028566, -0.033213, -0.009551, -0.037306, -0.102585, -0.092854, -0.003535, 0.000346, -0.001906, -0.000848, -9.4e-05, 0.000224, 0.002802, 0.001269, -0.002557, -0.001352, -0.000778, -0.00564, 0.005692, 0.000438, -0.003052, 0.000174, -0.000546, 0.000203, -0.003219, 0.002724, -0.329449, -0.441984, -0.110011, 0.092369, -0.102839, -0.462855, 0.030271, -0.61959, -0.234378, 0.298618, -0.278991, -0.101851, 0.22403, -0.112544, -0.074866, 0.227249, 0.171381, -0.092377, -0.554672, -0.41233, -0.107161, -0.163162, -0.077127, -0.057588, -0.235752, -0.270578, 0.089173, -0.275402, -0.092775, 0.234012, -0.13596, -0.170823, -0.290454, -0.050653, -0.042875, -0.021065, -0.389971, -0.29913, 0.00482, -0.4268, -0.006086, -0.010718, 0.001236, 0.00845, 0.003791, 0.007289, 0.01359, -0.004501, 0.010199, 0.00089, 0.003984, -0.018412, -0.021792, -0.001955, 0.011572, 0.001184, 0.001888, 0.003759, 0.013664, -0.004369, -0.131857, -0.093126, -0.059608, -0.025683, -0.098544, -0.113304, -0.006761, -0.149675, -0.047922, 0.07956, -0.108081, -0.118412, -0.151909, -0.023523, -0.982152, -0.023516, -0.178605, -0.166113, -0.013213, -0.184175, -0.049044, 0.068096, 0.056359, -0.005026, -0.045046, -0.021034, -0.026795, 0.020215, -0.018356, -0.052835, -0.021752, 0.026749, 0.088084, 0.008867, -0.016262, 0.045969, -0.14738, -0.06865, -0.034781, -0.039262, 0.028349, 0.013324, 0.242537, 0.078759, -0.099925, -1.416127, -0.024005, 0.213295, -0.06053, -0.345406, -0.144827, 0.674702, 0.282996, 0.0208, -0.053758, -0.101507, 0.076207, 0.279199, -0.084981, -0.432048, 0.070982, -0.139985, 0.419366, 0.177402, 0.128443, -0.062531, 0.339626, 0.015032, 0.20305, -0.216504, 0.283245, 0.270162, 0.512027, -0.042789, 0.128449, 0.149705, -0.023974, 0.077842, -0.006796, 0.538722, 0.314301, 0.096272, -0.421399, -0.416725, -0.158279, -0.157262, -0.19358, -0.599678, 0.077359, -0.251992, -0.066235, -0.018507, 0.075691, -0.203415, -0.211155, -0.158452, -0.434857, 0.098884, 0.083196, -0.138455], [0.028755, -0.015854, -0.032679, -0.018909, -0.050946, -0.067534, 0.004395, -0.034776, 0.133963, 0.043292, -0.052734, -0.000274, 0.068957, 0.066175, -0.000919, 0.011352, -0.002775, -0.020287, -0.014335, -0.014493, 0.179093, -0.010568, 0.001073, -0.00267, -0.102415, -0.086828, 0.031417, -0.023815, 0.004165, 0.032731, 0.084664, -0.000282, 0.094261, 0.070433, 0.000127, -0.168231, 0.010458, -0.016445, -0.015386, -0.013703, -0.025709, -0.036742, -0.058053, 0.027043, -0.059579, -0.092279, -0.023382, -0.061958, 0.136787, 0.034373, 0.024922, -2.9e-05, 0.085931, 0.103613, -0.000517, 0.033667, 0.005471, -0.047735, -0.025846, -0.036381]], "biases": [[-2.134856, -1.93517, -3.840779, -3.437962, 0.676901, -0.089694, -1.060601, -2.126581, 1.227435, 0.706682, -1.45736, -5.947652, -3.325127, -1.221646, 0.689135, -3.109459, -0.607503, -1.810295, 0.506492, -2.194015], [-0.986257, -0.965461, -0.783611, 0.063558, -0.755363, -1.379007, -0.083774, -0.935602, -1.232676, 0.106915, 0.185194, 0.009825, 0.551468, 0.606587, -0.091584, -0.569089, 0.340481, -1.100125, -0.592186, -0.638092], [0.196495, 0.136284, 0.235542]]}